{"lr": 0.001, "0": {"w": [[-0.6063661446927509, 0.372657196022128, 1.0437700969181352, -0.7320893224229635, 1.6656135555822078, -0.8685600498424967, -0.40115141444384483, -1.0756102899772473, 0.0685320825206524, -2.670073302730864, 1.1517537676158485, -0.5593623492048011, -1.2407206486598001, -0.46084547194033537, -0.8915710674500276, 0.5121232480163047, 0.5991729869098745, -1.1470171503373887, -1.0194643197602222, -0.6110299324166889, -0.5557364446441192, 0.17060787475321418, 0.358582586951774, -1.1006139884373385, -0.9941927699272234, 0.19047122324018625, -0.19473113329465164, 0.9859739056360658, -1.444717067592991, 0.2910890757014644], [-0.20794790788167422, -1.865098110931049, -0.8622892790232249, 0.0147554328257156, 0.18595259853633453, 1.2319438215324992, -1.3523534036620326, -0.3481911331578207, 0.9549054627461817, 0.7295736719477839, -0.5285906493217835, 0.6157121417164034, -0.2343912426766517, -0.6278812652717715, -0.4118582652853437, -1.0125433214480917, 1.0027858941659868, 0.32966871066487685, -1.2508889092998827, -0.7915856076977972, -0.9952848169270893, -0.596322210393005, -0.26639420161950816, -0.18484349137270353, 0.09283173382684122, -0.38354104229086705, -0.5504656426126586, -0.8530998810687295, -2.160264434794032, 1.3449483394428712], [2.2260322866942435, -1.1734963575077477, -0.8398063678030191, -0.7529357430465009, 0.9106385326525148, -0.7716088101112136, 0.030853145045486936, 1.007574464054317, -0.7372584941274256, -1.4578586613974105, -0.18412088291341755, 1.141509649780738, 0.02838909192380083, -0.8559229527953295, 1.8399760400071676, -2.12633411745277, -0.5523801795471049, -0.787800068120564, 0.7997874375206042, -1.4641620741170644, 1.46994234299451, -0.46107537707014445, -0.21207831910106617, -2.3049325542751076, 0.8390069349735931, 0.014255686858969299, 1.2466503226820704, -0.37727189192505367, 0.3737716973582727, 0.16307206651942513], [1.1471691615042674, 0.7208931648541476, -2.6829582101832545, 0.6068901998717346, -1.2171683783278957, 0.8672147594573313, 0.46992318343127243, 0.7221523104259343, 0.4016146655972895, 0.832584606642056, -0.11676064124246283, 1.2960334581148012, -1.0571944169139005, -0.3914908878459194, 0.8113780741696154, 0.12213189419015924, 0.512932422877287, 1.0263126320163296, -1.0074927098471513, -0.41573334366970954, -0.7992090337464463, -0.3650533996893412, 1.1403398077699545, -0.18753713320249016, 0.9458193229814229, 0.8444542291710448, -0.8126228593846687, -2.0855179503745997, 1.0395239497818916, 0.7196084803097482], [-1.791958308993147, 0.11957708824520505, 1.0480594365854647, -0.6689715277147587, -0.15910227675043512, -2.1107544787677956, -0.10584747079498129, 0.4459576622688571, -1.3479624199078162, -0.3675836061524993, -0.03898726069056433, 0.7931430304702606, 0.02651160316413428, 0.904230250608558, -1.4165225238070922, -1.1439859897232543, -0.5488439052367183, -0.9283114286966119, 0.023627158522847136, 2.0312942722507876, 0.12103335917726477, 1.1339578153013719, -1.3752478342784, -0.7678372514817337, -0.5346023536609691, -0.6888742592715457, -1.5117434290845204, 0.8400756624539039, 1.052554357612969, -0.042503283227818586], [0.5761292766833956, -0.2777111405731536, 0.5151413228701518, -0.5430470267233145, -0.09618750221490978, 0.7306232577033467, 0.6377818311798206, -0.3707299905015004, 0.6554887331258621, 0.8223603206059772, 1.1444076288812561, -0.1602898161846622, -2.1004723772051697, 0.19456675290294345, -1.1237324447882728, 0.43751213516640375, 0.9860952109694419, -1.2433571001332122, -1.0711955411797724, -1.169050877766748, 2.8020519985556254, -1.9566131795988828, 0.18916911336662184, 0.14921117713317605, -0.1423517498414389, -0.10368145333183204, 0.508950881775996, 0.9137945489566948, -0.1363564823256879, -0.11262972608839211], [-1.180880848596049, 0.5603262355019107, -0.12772000652424664, -0.22728463841844979, 1.7804773745126552, -0.45116009448774674, -1.4182367935738764, 0.10655870670161038, 0.5774314256009374, -1.2306315958328264, -0.5629428719894343, 0.7772761314507902, 1.184816466653465, -0.18698527489124564, 2.9050308043643907, 0.2353652248731611, 0.7316254180608571, 0.16745069597490334, -0.08592014253758705, -1.0734723337189724, -0.468538269786853, 1.799825033881763, -1.6897969807837916, -0.7463111147917045, 0.17423631524791613, 0.6483499484794932, -0.10433949635569623, -2.107917167429828, 0.05823825748397283, -0.9242084790305414], [-0.6274104655728661, -1.3971277846643628, -1.1213990407638352, 0.08413282621928075, -4.382914542800004, -0.5963453277399056, -1.1293628368847999, -0.9335924156196914, -0.02637415979017247, 0.3764949282173107, -0.8456244906168061, -1.233152657772556, -0.601442483971597, -1.1921599285727749, 0.04621274897779134, 0.763496072443172, 0.5882425723612246, 0.44172242219465624, -0.4960329217173386, 0.09518225097448807, -0.0010785029748951124, -1.55377964567888, -0.19444625227620715, -0.48164122742452714, 0.08186945888555315, 0.3783503671275219, -0.8682628747634555, 0.27145587123041104, -0.8019055580560054, -1.6047945230763012], [-1.6802054678054432, -1.4101949871700206, 0.02985446775540184, 0.5119331140591126, 0.34083204715452403, -0.10341599715269251, 0.7969096452580219, -0.33739980590773955, -1.1185358723597498, -0.1054258004817896, -0.5467276125274358, 0.36035781496676395, -0.555341339393047, 0.6625752948238014, -0.44993137004914713, -0.14867848095626446, -0.22012613091940283, -1.3323261455430004, -0.15893341433782027, 0.8458550975140856, 1.4839253545573896, -1.3826755010254361, -1.5154993087615416, -2.0965728620416457, -1.2733394044995168, -0.7718805013007366, 0.613863799059775, 0.49005672600041994, -0.5470624639264507, -0.9268642910825236], [0.7355546346135962, 0.2222191344246043, 0.3217687101023651, -1.7598505726853677, 0.5661682991913815, 0.9888278286091342, -0.1886209848388382, -0.7367136979775828, -0.42117736815480034, -0.3580386671358413, 0.24617080327755278, 0.23455891363039155, -0.6454063905760892, -0.9905281529397186, -0.5035145013797818, 0.8136423645590763, -0.6895087057453632, 2.4588468338352647, 0.2959125316754973, -1.6249059704814737, -1.4028417811984302, 0.5867297943278901, 0.48384705908513137, 0.44095192542095646, 1.1075423288946282, -2.1553126136957736, 0.14051277834950668, -1.7179484214902567, -1.0006671811526886, -0.0032187552665643372], [0.2737746537939805, 1.4789560661991743, -1.1885034142753166, -2.1886613639268755, 0.46277647256875665, -0.5675643303303906, 1.4623567813427232, 0.8369817873805576, 0.43077370554452216, 0.2600946272206412, 0.4545940210937688, -2.228707868450123, -0.40071816415013534, -0.7298193684143152, 1.6309312586930247, -0.40250006520498527, -0.3345386616452485, 1.772964390297168, -0.9515118355403926, -0.7353566621164347, -1.3227486769567902, -0.9830690015137082, -0.32105486148113555, 0.5670410792834654, 1.8611511771626428, 1.6666850124918442, -1.592409675054906, -2.3643733766377744, 0.8535339508513458, 1.1266528587585345], [-1.094704684026861, 2.354489493843593, 0.22987247727965773, -0.42748654199130354, -0.4722253649257317, 0.06623499192230849, -2.1703204966029497, -0.39750770924645146, -1.1590129958747244, -0.5167535362465, -0.9433768422802102, -0.5378735680401151, -1.0975715102642927, 0.16001969821907527, -1.23581944238148, -0.4422685787590117, -0.4081125246419571, -1.4308033517204644, -0.9130789267443721, 0.08773779236023976, 1.6876281338780508, 0.7570216512996131, -0.7092865381661075, 1.220851102332786, -1.4901194212972209, 1.025004080451558, -0.9214918242889054, 0.7011948888203614, 0.1538728042163461, -0.4207077722223275], [-0.6072485019279101, -0.9635640650753899, -0.9950652406076476, -0.7173599264344803, -0.5988128998324819, 0.4233537816331118, -0.29806257364904903, -0.2527510977924095, -0.14920324833572068, 1.669067832390221, -1.1138773522136454, -0.14157528385264323, 0.43608958550230803, 2.123593851376879, -1.4991852754993658, 0.6987647278140537, -0.47589712402273027, -0.26962213676064517, 0.2770568591169092, 1.4433594833151882, 0.15962212777683804, -0.2464390917941116, 0.4442278772977172, 1.278648935204284, -2.319693424147639, -0.013317981328104474, -0.9291893626946351, 1.9636476102491935, -1.1184433107461496, 1.127813970029677], [1.1465333492539715, -1.3422296303096344, -1.5337880357374571, 0.010069310752121065, -2.9807855863563537, 0.38581167301132396, 0.6488410950648502, 1.2740047347028063, 0.6814547631308184, 1.0479093808501314, 1.3889607219106905, -1.1358665357661348, 1.972979288943503, 0.7017434486483294, 0.01789637927377802, 0.16230068915398332, -0.6453344744562346, 0.9187528064305581, 0.7945348664406929, 0.2185657054552327, 0.7635061874174847, 1.8730162202667686, -1.359235188319083, 0.37463091809147037, 1.0004959069687323, -0.01138148091715875, 1.13293635029723, 1.049244070779373, -0.6111321911372691, 0.20098890436012912], [0.5069034916448121, -1.387408034188658, -0.635720140628519, 0.8019450215209887, 0.9754003642396393, -0.779077642221559, -1.2243315787318783, -0.5197565429388334, -0.9978947344904358, 0.7635061722781172, -1.209432710545778, -0.4219580492804268, 2.3580835174024686, -0.44057715904918165, -1.4279470588148617, 1.4098680229974574, -2.0728753290191366, 0.9397908318414502, -0.2271780641869787, 0.20655978789526258, 0.7145343440300329, 0.6187746166980888, -1.313347406737943, -0.2784382650365364, -0.4077788421653681, 0.9070348711612879, 1.4765135640487665, 2.4034519853507583, -0.7746375039226576, -1.1087071564135975], [-0.19565084071998293, 0.4187390327232742, 0.011533115756521113, 1.2665654137052949, 2.2442149731301626, -1.6174074190280614, -0.04433004770852185, -0.6701339744601363, 0.04603109787803973, -0.4776999112082516, -1.004662949227723, 2.294929575974867, -0.8401246229244156, -0.2939446242324932, 0.19951894638549575, 0.26769518027694517, -1.8305430784598804, -0.6838078463852667, 0.0007207376837449496, 0.6592124387186269, 0.42636245313960397, -2.2190359432831905, 0.8025329131241487, 0.07062787195330304, 0.860817372564368, 1.52138683323594, 0.6198215143244495, -0.6612084647189812, 0.22645637972357252, 0.4083555231419494], [2.5457153415406326, 2.0945471764200145, 0.7642888660381876, 0.18984797738832415, 0.5536007420586257, 0.4360478799317499, -0.8022254620360882, -0.01629346675724331, 0.22805077558770495, 1.3207826720716775, -1.128703011032272, -0.5613146199069922, 0.7979157967130827, 0.04142995952809046, -1.392004735561764, -1.2800601125724924, 0.2555020009367702, 1.5607487198823793, 0.21254417635978484, 1.193383785194113, -0.5471259141811903, -1.0601235510044213, -0.864242675242127, -1.7141708604090404, -0.5237548257413255, -1.503862954851514, 0.9615024998196441, -0.26927460859346153, 0.7669111538695813, -0.9465249301009907], [-0.3962126033146213, -0.4807048004659624, 1.5656179394987781, -0.7540232814063598, -1.8640310625893899, 0.005704663235512424, -0.33317359648300643, 0.5278617390605439, 0.7555956953319922, 1.8622710136821359, -1.9723094231325253, -0.6601982525596671, -1.0659260275879783, 0.3015969702289848, 0.16172322127500588, 1.9665338662859249, 1.2128496941111784, -0.5079104491654473, 1.243746546966699, -1.4913307243436829, 1.0070095511535, -0.9707149532489965, 1.329778296614994, -0.8218765384738149, -0.9458138570761975, 0.8050126615537607, -1.1733267299909846, 0.5775519774592041, -1.2326632312254049, 2.069481473778421], [-0.3842502775397398, -1.4945511184574265, -1.0291485703899708, 1.0569007065206695, -0.14814187006169546, 0.9726007985138411, 0.2471595405535472, 0.6912889632178669, 0.9092279013451022, 0.3882546475879177, -0.4082495330947242, -0.3643458351485872, 1.1295452948729447, -0.6541563026385935, -0.9671218102740584, -1.8232838235357642, 0.6156556198942986, 0.31652060919425373, -0.4616544124817084, 1.0216897044724789, -0.7452601310732484, -0.9660696501475211, 0.4761860842023782, -0.554161742645561, -0.13158529095085156, 0.9811362804849086, -0.44588399978352355, 0.8726825973145421, 0.4263716101345024, -0.988952879558544], [-1.2663241917642307, -1.0277232409862136, 0.500024840707988, 0.26036231758493955, 1.3499423647078468, -0.23983284745717778, 1.0727459916851263, -1.0378552706237218, 0.256188275212619, 0.5197041123874939, -1.4440056251750746, -0.34923310154665005, 1.4656235922576928, -1.7419348468203208, -1.2195868598475919, 1.842385214873819, 0.6744322867125516, 1.5854279396646611, 0.6964166872100737, 1.6039487194843383, -0.5180078005279024, -0.4778201837799578, -1.0855037231023699, 0.9974794286095899, 0.13603696813416608, -1.0995814139403086, 0.4664583729943801, -0.05501825513154171, 1.4539896362294442, 1.2104916145511175]], "b": [0.0, 0.0, 0.0, 0.0, 0.0, 0.0, 0.0, 0.0, 0.0, 0.0, 0.0, 0.0, 0.0, 0.0, 0.0, 0.0, 0.0, 0.0, 0.0, 0.0, 0.0, 0.0, 0.0, 0.0, 0.0, 0.0, 0.0, 0.0, 0.0, 0.0]}, "1": {"w": [[-2.339557921668375, -0.5084870395777149, 0.42945381108975383, -0.3816193747872682, 0.07277221972356787, -0.7043099164998813, -1.326022277247964, 0.4168524355338934, -1.5384806561751803, -1.970498391083276], [3.2659129510016682, 2.740450850991058, 0.30898726243316327, -2.342718014667446, -0.11695949357204517, 1.5403427131700507, -0.043060084165661185, 1.1133319424376997, 0.22120706570870963, 0.023277051775639514], [-0.4652674846946162, 1.1239423358119283, 0.6840172478009675, -0.9113519141704446, -0.3275886976486383, 2.5712590022799193, -0.7036598339572367, 0.5968611575240994, 0.5271697779948026, -0.8108944573747786], [-0.6277141971396301, 2.1861036691528843, -0.6695636499423989, 1.4999866757885496, -1.0776931686519335, -0.4701852109094858, -0.3060985620333471, -0.4239886038878904, 0.5528210770483784, -1.981915445537043], [1.7424552885920224, 0.9633808400460814, 2.073612659242843, 0.5383242624937171, -0.5343283070920313, 0.3446191095373119, 0.8603658534702042, 0.44268431136559505, 0.29222761748060555, -0.31574509610748397], [-1.272271129964769, 1.5095657368415991, -1.4089365360007655, 0.898225769448976, -1.3543501724592322, -0.08654798129555011, -0.7791545474329282, -0.4269561694764268, -0.05694454521912805, 0.06279407293229773], [0.6724405714369026, 0.5486184092751538, 0.011205539109256143, 0.8828839264228301, -0.8729224001804342, 0.5880835276271499, 0.38072864104246734, -1.0976298595483696, -0.5095046945037819, -1.8119441249429078], [0.14494167648048603, -0.7868052200871457, 1.4768415668001815, 0.5951882568846179, -0.9485728207197174, -0.25118458017605066, 1.3203093837100721, -0.9856912109218485, 0.02390298119444678, 0.5498393826081628], [0.9749207400795713, -0.006650530817452027, 0.10668799007857087, -1.1562230905467106, 0.1769833477499668, -1.6299450540721068, 0.39451536602717147, 1.2562445240914408, -0.2528089862503581, 1.5711451991012957], [-0.16860847903631745, -0.6274661084094821, 0.24521657338877964, 0.937944368610416, 1.8053480189720703, 1.5919875262690724, 0.6525009003425575, -0.23743764073664475, -0.2535458989593346, -0.8699654354429633], [-0.8753008489217335, -0.35425710102115626, -0.2668440497663769, 0.5072071313313956, -2.0495215004732996, -0.09265887484745355, 0.2866159243120359, -0.9503898832250448, 0.7076401970098661, -0.2391045908414865], [-0.0014112511968909392, -0.6867628805184727, -0.15865999603208059, 1.3170861999897312, 0.48406681525853373, -0.6139833204136435, 0.4312943194650505, -0.463785076590997, 1.1353176958416267, 0.7427987232230175], [-0.2185466132375713, -0.028578191820947552, -1.0793776959319494, 1.0465378339476032, -0.5674848174243874, -1.3576301693508606, 0.7828062164773945, 1.0608277698141946, 0.08391691403649687, -0.9767224447225048], [-0.3229486231778803, 1.2722383509488149, -1.9102715687553151, 0.28418311408716557, -0.19818293292696676, 0.4621887919673693, 0.826262883920979, 0.22443858547887077, -1.495614582844727, 1.4273560399932153], [0.6997723868887048, -0.23115981267705493, 0.4482009437576741, 0.47502847620321564, 0.33063661716312515, -1.0949483322636155, 1.094080621205136, 1.005143559618997, 0.40914589685833197, 0.3570886912559998], [-0.15391852293560812, 1.3777933772381348, -0.10964717134440004, -0.007021818520997801, -2.146517041223329, -0.34791687989421055, -0.05458809975830789, 1.8985417038745265, -0.7159610776933387, 0.16975712127417947], [0.45717025937398714, 1.0904443687153416, 1.3229412032515366, -1.6704113738391138, 0.4697467226358298, -0.4109477571843477, -0.020805827099754707, 1.2356604871928272, -0.9225674954262361, 0.8974324862433302], [2.242135804154447, 0.007354388456463569, 0.3531596854535439, -1.057961040152517, 0.11490742248885776, 1.7901420351782946, -1.4376155960273562, -0.006093664560755253, 0.8659016156374157, 1.1399136515454975], [-1.8413459276799469, -0.31802049680386824, 1.2268936015409113, -0.5072787599587182, -0.5005432013164679, 0.774926101399561, 0.09212545674913535, 0.6350433335806587, 0.43099699665309826, 1.3501823459585605], [-0.05235500454623268, -0.9104835253273579, -0.4949620055111782, 1.240925854323293, -0.0474891015866596, -0.45410679865176445, 0.2898983342369197, -1.1355414595056843, -1.1268419764264446, -0.9981996598929168], [1.0446641548624065, -0.23707768967569717, 1.2880365381829197, -0.11405171171710059, -0.4021938448059447, -0.2014357843825044, -0.8471463794581615, -0.38059527335409793, -1.6687040394992927, -0.5724012951372381], [0.010432656120334814, 0.0914930178502901, -1.0701440823734927, -0.49725234824886333, -1.1614904196184883, -0.19332405516689943, 1.1543384187017933, -0.5657907798454349, -0.9604138862388628, -0.0797700041892069], [-1.567156997620525, 2.165428449792928, -2.794997720685662, 0.5840323803705401, 2.2591102809273225, -0.23520314644121162, -2.0923608669816, -1.1800044488145662, -0.35597181088339175, -1.410579534130445], [0.709651710020669, -0.3282928934490136, -0.1144553718303079, -0.6575958215494927, 0.7684219116778397, 0.33728001671629726, 1.1470844346831044, -0.18998507266228756, 1.5798047968653635, 2.6977660758632243], [-0.40087197571762145, -0.2903898486806219, -1.1097502818200538, -0.25554905243062803, 1.045020932020437, 1.520309324074352, -0.413036958364742, 0.01913855012304091, -0.16826485661361676, -0.07712629640829968], [0.2238020196376958, -0.018304478917382884, 0.3196287166741868, -0.32298336258178284, 1.708153654905041, -1.4167643009248738, 1.467354219727442, 0.9771524935775392, 0.24781722306827103, 0.964692099818829], [0.21899821065722433, -2.285501988974233, 1.8414249761568897, 0.2389364524740793, 1.1850405767062318, -0.014005258080919028, 0.9791497159257366, 1.6326747227800331, 1.1969236233550553, -0.8852151242208657], [0.6014543458841679, -0.9568197703997983, -0.4932694815615612, -1.61166153695763, 3.4322540674397306, -1.813406464387512, -0.15153024463656176, 1.0980671685077512, 0.44758710977985416, 0.14402750886934854], [-2.3461344551846883, 0.4865727935901811, -0.1568655379344136, 1.326100600051611, -0.5821798052915984, -1.6275279212040696, 0.38922918114134997, 1.0974842337166448, 0.2823744060105945, -1.0863183422334373], [0.10245686978934605, 0.5480996564076387, -1.7294742267511485, -1.1241847614431213, -0.6409663840401661, -0.7795777197320256, 1.973643688548703, 1.1214783379697484, -0.3282575675919705, -1.283474735232906]], "b": [0.0, 0.0, 0.0, 0.0, 0.0, 0.0, 0.0, 0.0, 0.0, 0.0]}, "2": {"w": [[-0.9529098708578612], [-0.5354955468515883], [-1.0012193608460342], [-0.9499721366277053], [0.32339759713357175], [0.005738551633851746], [-1.5667875647735103], [-1.4482330885637698], [-0.8187252309209607], [3.1882838498861945]], "b": [0.0]}}